<?xml version="1.0"?>
<opencv_storage>
<opencv_ml_svm>
  <format>3</format>
  <svmType>C_SVC</svmType>
  <kernel>
    <type>INTER</type>
    <gamma>1.0000000000000001e-05</gamma></kernel>
  <C>1.0000000000000001e-01</C>
  <term_criteria><epsilon>1.1920928955078125e-07</epsilon>
    <iterations>1000</iterations></term_criteria>
  <var_count>13</var_count>
  <class_count>2</class_count>
  <class_labels type_id="opencv-matrix">
    <rows>2</rows>
    <cols>1</cols>
    <dt>i</dt>
    <data>
      0 1</data></class_labels>
  <sv_total>26</sv_total>
  <support_vectors>
    <_>
      49. 0. 1.22448981e+00 2.43237687e-16 0. 0. 3.41206528e-02
      5.40351719e-02 -3.32480967e-01 2.06025839e-02 1.34391028e+03
      3.65610664e+04 1.76766071e+01</_>
    <_>
      5.92786903e+01 1.42748201e+00 1.01273668e+00 2.40171719e-02
      1.08608883e-02 0. 2.18347423e-02 3.58501892e-03 -5.79274085e-04
      1.23401918e-03 1.77428284e+02 6.72561049e-01 2.71908402e+00</_>
    <_>
      6.08688507e+01 9.21509802e-01 9.85953510e-01 1.52935944e-02
      8.75679497e-03 0. 3.50996479e-02 7.59990606e-03 4.71259147e-01
      4.69625462e-03 4.72043579e+02 8.12967891e+04 2.48269272e+00</_>
    <_>
      64. 2.88675141e+00 9.39274430e-01 4.26442772e-02 4.80835065e-02 2.
      4.78115499e-01 3.98824997e-02 2.95972973e-02 1.21860942e-02
      7.55755156e+04 3.36288239e+02 5.35346079e+00</_>
    <_>
      6.95384598e+01 4.40861607e+00 8.66022348e-01 5.46239838e-02
      4.04686667e-02 2. -9.48598385e-01 8.83756205e-03 1.08085470e-02
      8.64253752e-03 3.27217906e+05 6.95926819e+01 3.87966275e+00</_>
    <_>
      7.09344254e+01 1.92750874e+01 .Inf .Nan .Nan 8. 1.71858650e-02
      2.78986424e-01 4.91020918e-01 5.95889628e-01 2.84556172e+04
      2.17283719e+05 9.40381851e+01</_>
    <_>
      7.15000000e+01 1.62634563e+01 8.61445785e-01 1.95945248e-01
      2.77108431e-01 1. 9.63783860e-02 1.19677447e-01 1.00374353e+00
      1.23792693e-01 7.74412842e+03 3.35814594e+05 7.98212891e+01</_>
    <_>
      7.17377014e+01 2.52917409e+00 8.37416708e-01 2.99068242e-02
      9.02370550e-03 0. -9.86944258e-01 2.89791692e-02 1.20126866e-01
      4.59586233e-02 3.18970812e+05 5.41128516e+03 2.73882389e+01</_>
    <_>
      7.29230804e+01 3.22649288e+00 8.24271917e-01 3.64365503e-02
      2.31104512e-02 0. 7.55651832e-01 1.99876856e-02 6.19568467e-01
      1.72444563e-02 2.08458984e+05 1.40148422e+05 4.26909781e+00</_>
    <_>
      73. 5.65685415e+00 8.24392974e-01 6.38831630e-02 9.03444365e-02 1.
      4.34710309e-02 4.21653539e-02 1.01930869e+00 8.95326585e-03
      1.20317627e+03 3.41156844e+05 1.14599142e+01</_>
    <_>
      7.48524628e+01 2.29373097e+00 8.02320600e-01 2.46883910e-02
      1.03857489e-02 0. 7.41732001e-01 2.56571993e-02 -5.70712864e-01
      7.82111436e-02 2.01615188e+05 1.21454430e+05 6.33216238e+00</_>
    <_>
      7.55384598e+01 6.59059143e+00 7.99612164e-01 6.60788342e-02
      3.69663835e-02 1. 9.39041018e-01 9.77483764e-03 9.24418867e-02
      1.47427022e-02 3.21728812e+05 3.19669678e+03 3.51224494e+00</_>
    <_>
      76. 1.47196019e+00 7.89749682e-01 1.54396929e-02 2.47691609e-02 0.
      -9.43704188e-01 3.70472856e-03 -3.16043049e-01 3.70635604e-03
      3.25978656e+05 3.65647695e+04 4.03553867e+00</_>
    <_>
      7.61475372e+01 2.07232618e+00 7.88514495e-01 2.13169288e-02
      6.84314361e-03 0. -9.89974201e-01 2.47014947e-02 7.44680781e-03
      7.37347156e-02 3.20855625e+05 1.79387085e+03 2.41869297e+01</_>
    <_>
      7.69230804e+01 2.69139171e+00 7.80866861e-01 2.68541053e-02
      2.44660582e-02 0. -9.74959195e-01 2.05598008e-02 1.94055319e-01
      2.16146745e-02 3.48077844e+05 1.39542959e+04 8.80591202e+00</_>
    <_>
      7.78461533e+01 2.79422474e+00 7.71631956e-01 2.65919045e-02
      2.34301277e-02 2. -9.89760518e-01 6.56281132e-03 -1.00369610e-01
      8.83221719e-03 3.58583312e+05 3.71586279e+03 5.28214359e+00</_>
    <_>
      83. 0. 7.22891569e-01 0. 0. 0. 8.14626459e-03 2.42624804e-01
      9.07312095e-01 5.01623809e-01 1.91810137e+04 3.50298781e+05
      3.03364807e+02</_>
    <_>
      8.31999969e+01 2.93636203e+00 7.21980214e-01 2.60236859e-02
      1.81419905e-02 0. 8.37333575e-02 8.30059350e-02 1.01326263e+00
      4.33485843e-02 4.54432861e+03 3.36533938e+05 3.27212563e+01</_>
    <_>
      8.36721344e+01 1.28201942e+01 7.32813656e-01 1.05040021e-01
      1.85114965e-02 2. -4.13396627e-01 2.86376178e-01 3.72882962e-01
      3.25375885e-01 8.24115781e+04 7.97906328e+04 1.41243639e+01</_>
    <_>
      8.86250000e+01 4.17261457e+00 6.78316355e-01 3.17637548e-02
      4.20425311e-02 2. 4.44076844e-02 4.38898019e-02 9.91867781e-01
      2.97483224e-02 1.41162061e+03 3.56853844e+05 2.77402954e+01</_>
    <_>
      8.92622986e+01 2.60065150e+00 6.72739208e-01 1.96477901e-02
      5.35490736e-03 0. 1.20304547e-01 2.34464347e-01 -9.96296585e-01
      3.55825186e-01 2.26904082e+04 3.66117969e+05 3.42503143e+02</_>
    <_>
      8.97540970e+01 1.98876631e+00 6.68812633e-01 1.46646881e-02
      6.80759596e-03 0. -5.37967831e-02 1.67454109e-01 9.95905280e-01
      1.80973589e-01 1.04981094e+04 3.48223938e+05 2.12192337e+02</_>
    <_>
      9.22909088e+01 1.86262190e+00 6.50377691e-01 1.30967330e-02
      6.43254211e-03 0. 7.92371094e-01 5.87413199e-02 9.84934568e-02
      5.39192334e-02 2.09449031e+05 4.18143848e+03 1.36651316e+01</_>
    <_>
      9.43076935e+01 3.70550537e+00 6.37103856e-01 2.45117638e-02
      1.54613219e-02 0. 4.52997163e-02 2.03240197e-02 -7.19253942e-02
      1.19407810e-02 8.96094421e+02 1.93280310e+03 1.93712635e+01</_>
    <_>
      9.67272720e+01 3.37908006e+00 6.20994329e-01 2.18537357e-02
      1.13277910e-02 0. -1.66706704e-02 1.06113702e-01 9.96679246e-01
      1.00320004e-01 4.17464941e+03 3.63642281e+05 1.07967125e+02</_>
    <_>
      1.03500000e+02 2.77428665e+01 6.23814762e-01 2.20703319e-01
      2.42648423e-01 2. 7.41448283e-01 1.22411454e+00 9.83668119e-02
      1.11105585e+00 201474. 1.22277750e+05 5.26061890e+02</_></support_vectors>
  <decision_functions>
    <_>
      <sv_count>26</sv_count>
      <rho>-1.1085782934134242e+13</rho>
      <alpha>
        1.6083300439004995e-05 1.0605928039645192e-05
        1.7163975912124856e-05 7.0331982428371701e-06
        8.3600166666230069e-19 1.2338073735036011e-05
        5.8876633794625501e-06 1.2303123833422592e-05
        5.9014253246588933e-06 7.8834903589058585e-06
        6.0698188808077389e-06 6.1561013340356264e-06
        6.4140370309807504e-06 5.9672326702511363e-06
        -1.6083300439004995e-05 -6.1561013340356264e-06
        -5.9014253246588933e-06 -1.0605928039645192e-05
        -1.2037051551058876e-05 -7.0331982428371701e-06
        -1.7163975912124856e-05 -7.8834903589058585e-06
        -1.2303123833422592e-05 -5.8876633794625501e-06
        -6.4140370309815864e-06 -1.2338073735036011e-05</alpha></_></decision_functions></opencv_ml_svm>
</opencv_storage>
